<?xml version="1.0"?>
<opencv_storage>
<stage1>
  <maxWeakCount>15</maxWeakCount>
  <stageThreshold>-1.0577030181884766e+000</stageThreshold>
  <weakClassifiers>
    <_>
      <internalNodes>
        0 -1 11836 2.1290201693773270e-002</internalNodes>
      <leafValues>
        -4.1422593593597412e-001 7.6245212554931641e-001</leafValues></_>
    <_>
      <internalNodes>
        0 -1 37282 6.4320459961891174e-002</internalNodes>
      <leafValues>
        -2.0319487154483795e-001 6.9670081138610840e-001</leafValues></_>
    <_>
      <internalNodes>
        0 -1 28266 2.7594681829214096e-002</internalNodes>
      <leafValues>
        -1.7853860557079315e-001 5.5673086643218994e-001</leafValues></_>
    <_>
      <internalNodes>
        0 -1 34267 -7.8583769500255585e-003</internalNodes>
      <leafValues>
        5.2525103092193604e-001 -2.7199742197990417e-001</leafValues></_>
    <_>
      <internalNodes>
        0 -1 38134 1.6179602243937552e-004</internalNodes>
      <leafValues>
        2.5909322500228882e-001 -4.4364896416664124e-001</leafValues></_>
    <_>
      <internalNodes>
        0 -1 5801 8.1514634191989899e-002</internalNodes>
      <leafValues>
        -1.2529540061950684e-001 7.5050097703933716e-001</leafValues></_>
    <_>
      <internalNodes>
        0 -1 46506 -2.2715225815773010e-002</internalNodes>
      <leafValues>
        7.4044466018676758e-001 -1.5158085525035858e-001</leafValues></_>
    <_>
      <internalNodes>
        0 -1 76978 -1.4951293356716633e-002</internalNodes>
      <leafValues>
        -6.8019437789916992e-001 1.7607158422470093e-001</leafValues></_>
    <_>
      <internalNodes>
        0 -1 37178 2.8252802789211273e-002</internalNodes>
      <leafValues>
        -1.8498568236827850e-001 5.9605306386947632e-001</leafValues></_>
    <_>
      <internalNodes>
        0 -1 42700 -2.4820327758789063e-002</internalNodes>
      <leafValues>
        5.5415076017379761e-001 -1.5753115713596344e-001</leafValues></_>
    <_>
      <internalNodes>
        0 -1 21630 1.5028547495603561e-002</internalNodes>
      <leafValues>
        1.5637478232383728e-001 -5.6132817268371582e-001</leafValues></_>
    <_>
      <internalNodes>
        0 -1 68823 -1.1188118718564510e-002</internalNodes>
      <leafValues>
        -4.5995283126831055e-001 2.0328634977340698e-001</leafValues></_>
    <_>
      <internalNodes>
        0 -1 51707 1.4761924743652344e-002</internalNodes>
      <leafValues>
        -1.3884669542312622e-001 5.7331973314285278e-001</leafValues></_>
    <_>
      <internalNodes>
        0 -1 71197 1.6109613352455199e-004</internalNodes>
      <leafValues>
        2.2528848052024841e-001 -3.4855267405509949e-001</leafValues></_>
    <_>
      <internalNodes>
        0 -1 2523 4.7057545743882656e-003</internalNodes>
      <leafValues>
        -2.5162073969841003e-001 2.9806333780288696e-001</leafValues></_></weakClassifiers></stage1>
</opencv_storage>
