<?xml version="1.0"?>
<opencv_storage>
<stage17>
  <maxWeakCount>35</maxWeakCount>
  <stageThreshold>-7.2068923711776733e-001</stageThreshold>
  <weakClassifiers>
    <_>
      <internalNodes>
        0 -1 31960 -3.7619672366417944e-004</internalNodes>
      <leafValues>
        -4.4242423772811890e-001 2.7940073609352112e-001</leafValues></_>
    <_>
      <internalNodes>
        0 -1 48512 -1.0753797367215157e-002</internalNodes>
      <leafValues>
        5.2066671848297119e-001 -9.2075191438198090e-002</leafValues></_>
    <_>
      <internalNodes>
        0 -1 29626 -3.0461770296096802e-001</internalNodes>
      <leafValues>
        3.5117021203041077e-001 -1.2251914292573929e-001</leafValues></_>
    <_>
      <internalNodes>
        0 -1 31965 8.2839324022643268e-005</internalNodes>
      <leafValues>
        2.5663787126541138e-001 -1.8002484738826752e-001</leafValues></_>
    <_>
      <internalNodes>
        0 -1 61034 2.0706884562969208e-002</internalNodes>
      <leafValues>
        -7.6246529817581177e-002 5.9436440467834473e-001</leafValues></_>
    <_>
      <internalNodes>
        0 -1 19265 2.3507392033934593e-002</internalNodes>
      <leafValues>
        -1.4870332181453705e-001 2.8725171089172363e-001</leafValues></_>
    <_>
      <internalNodes>
        0 -1 42900 -2.2245696163736284e-004</internalNodes>
      <leafValues>
        -2.5365012884140015e-001 1.8617302179336548e-001</leafValues></_>
    <_>
      <internalNodes>
        0 -1 71154 -5.1089776679873466e-003</internalNodes>
      <leafValues>
        -5.0938498973846436e-001 7.3396176099777222e-002</leafValues></_>
    <_>
      <internalNodes>
        0 -1 37493 -2.1699201315641403e-003</internalNodes>
      <leafValues>
        2.4992339313030243e-001 -1.6022494435310364e-001</leafValues></_>
    <_>
      <internalNodes>
        0 -1 37797 -2.6608226471580565e-004</internalNodes>
      <leafValues>
        -3.8114833831787109e-001 1.5349660813808441e-001</leafValues></_>
    <_>
      <internalNodes>
        0 -1 67325 1.2513574212789536e-002</internalNodes>
      <leafValues>
        1.0322167724370956e-001 -3.8941553235054016e-001</leafValues></_>
    <_>
      <internalNodes>
        0 -1 39855 -4.9808435142040253e-004</internalNodes>
      <leafValues>
        -3.4437388181686401e-001 9.9686957895755768e-002</leafValues></_>
    <_>
      <internalNodes>
        0 -1 40942 -8.7155759334564209e-002</internalNodes>
      <leafValues>
        7.4439817667007446e-001 -4.4374674558639526e-002</leafValues></_>
    <_>
      <internalNodes>
        0 -1 31632 -4.3687727302312851e-003</internalNodes>
      <leafValues>
        3.5144248604774475e-001 -1.0696741938591003e-001</leafValues></_>
    <_>
      <internalNodes>
        0 -1 42218 4.5374064939096570e-005</internalNodes>
      <leafValues>
        -2.8978154063224792e-001 1.5174172818660736e-001</leafValues></_>
    <_>
      <internalNodes>
        0 -1 48015 5.3626592271029949e-003</internalNodes>
      <leafValues>
        -1.5273679792881012e-001 2.7610298991203308e-001</leafValues></_>
    <_>
      <internalNodes>
        0 -1 41750 -1.6677251551300287e-004</internalNodes>
      <leafValues>
        -3.1175920367240906e-001 1.2195049971342087e-001</leafValues></_>
    <_>
      <internalNodes>
        0 -1 46871 1.1411770246922970e-003</internalNodes>
      <leafValues>
        1.2426242977380753e-001 -3.8347265124320984e-001</leafValues></_>
    <_>
      <internalNodes>
        0 -1 24952 -1.0935085447272286e-004</internalNodes>
      <leafValues>
        -3.0633407831192017e-001 1.3041222095489502e-001</leafValues></_>
    <_>
      <internalNodes>
        0 -1 3425 -2.3966137319803238e-002</internalNodes>
      <leafValues>
        4.5489215850830078e-001 -8.6863830685615540e-002</leafValues></_>
    <_>
      <internalNodes>
        0 -1 28186 7.2444458492100239e-003</internalNodes>
      <leafValues>
        9.0935036540031433e-002 -4.7148436307907104e-001</leafValues></_>
    <_>
      <internalNodes>
        0 -1 32003 -2.7272891020402312e-004</internalNodes>
      <leafValues>
        -3.3842232823371887e-001 1.0828000307083130e-001</leafValues></_>
    <_>
      <internalNodes>
        0 -1 39 -9.6011087298393250e-003</internalNodes>
      <leafValues>
        -2.5369244813919067e-001 1.3813842833042145e-001</leafValues></_>
    <_>
      <internalNodes>
        0 -1 73 1.5802389010787010e-002</internalNodes>
      <leafValues>
        5.6953452527523041e-002 -6.3971799612045288e-001</leafValues></_>
    <_>
      <internalNodes>
        0 -1 25811 4.3397910892963409e-002</internalNodes>
      <leafValues>
        4.1729945689439774e-002 -8.2267075777053833e-001</leafValues></_>
    <_>
      <internalNodes>
        0 -1 28188 -1.1923250742256641e-002</internalNodes>
      <leafValues>
        7.7193242311477661e-001 -5.7126149535179138e-002</leafValues></_>
    <_>
      <internalNodes>
        0 -1 46175 3.1063158530741930e-004</internalNodes>
      <leafValues>
        1.8101814389228821e-001 -2.0011222362518311e-001</leafValues></_>
    <_>
      <internalNodes>
        0 -1 34083 5.7666976004838943e-002</internalNodes>
      <leafValues>
        4.5219823718070984e-002 -7.8868526220321655e-001</leafValues></_>
    <_>
      <internalNodes>
        0 -1 8342 2.9277756810188293e-002</internalNodes>
      <leafValues>
        5.3556274622678757e-002 -5.7001137733459473e-001</leafValues></_>
    <_>
      <internalNodes>
        0 -1 3418 -1.4725125394761562e-002</internalNodes>
      <leafValues>
        -9.0395343303680420e-001 3.0074723064899445e-002</leafValues></_>
    <_>
      <internalNodes>
        0 -1 47299 1.8024771634372883e-005</internalNodes>
      <leafValues>
        -2.0930010080337524e-001 1.5953102707862854e-001</leafValues></_>
    <_>
      <internalNodes>
        0 -1 51998 1.6626536307740025e-005</internalNodes>
      <leafValues>
        -1.7911489307880402e-001 2.3332540690898895e-001</leafValues></_>
    <_>
      <internalNodes>
        0 -1 18828 7.0797316730022430e-003</internalNodes>
      <leafValues>
        -1.6153188049793243e-001 2.5063180923461914e-001</leafValues></_>
    <_>
      <internalNodes>
        0 -1 17326 -3.6907680332660675e-003</internalNodes>
      <leafValues>
        3.0223220586776733e-001 -1.4616829156875610e-001</leafValues></_>
    <_>
      <internalNodes>
        0 -1 10297 -4.4736504554748535e-002</internalNodes>
      <leafValues>
        -5.7365250587463379e-001 7.1440175175666809e-002</leafValues></_></weakClassifiers></stage17>
</opencv_storage>
