<?xml version="1.0"?>
<opencv_storage>
<stage19>
  <maxWeakCount>30</maxWeakCount>
  <stageThreshold>-6.5798211097717285e-001</stageThreshold>
  <weakClassifiers>
    <_>
      <internalNodes>
        0 -1 25436 2.5003174319863319e-002</internalNodes>
      <leafValues>
        -3.4013606607913971e-002 4.2483660578727722e-001</leafValues></_>
    <_>
      <internalNodes>
        0 -1 19629 1.8805218860507011e-003</internalNodes>
      <leafValues>
        -1.2553185224533081e-001 3.3946710824966431e-001</leafValues></_>
    <_>
      <internalNodes>
        0 -1 15533 -4.1890740249073133e-005</internalNodes>
      <leafValues>
        2.3466670513153076e-001 -2.2603736817836761e-001</leafValues></_>
    <_>
      <internalNodes>
        0 -1 30782 1.6085587441921234e-002</internalNodes>
      <leafValues>
        -1.5660299360752106e-001 3.2464140653610229e-001</leafValues></_>
    <_>
      <internalNodes>
        0 -1 32942 1.8333277694182470e-005</internalNodes>
      <leafValues>
        -2.0763137936592102e-001 2.0980781316757202e-001</leafValues></_>
    <_>
      <internalNodes>
        0 -1 46265 7.5765296816825867e-002</internalNodes>
      <leafValues>
        -6.6524811089038849e-002 5.3377026319503784e-001</leafValues></_>
    <_>
      <internalNodes>
        0 -1 46178 3.8487509300466627e-005</internalNodes>
      <leafValues>
        -1.8607603013515472e-001 2.0528091490268707e-001</leafValues></_>
    <_>
      <internalNodes>
        0 -1 46486 4.5039778342470527e-005</internalNodes>
      <leafValues>
        -1.8139509856700897e-001 2.1536055207252502e-001</leafValues></_>
    <_>
      <internalNodes>
        0 -1 33429 3.9197373553179204e-005</internalNodes>
      <leafValues>
        -1.8713733553886414e-001 2.0072865486145020e-001</leafValues></_>
    <_>
      <internalNodes>
        0 -1 47089 4.8650102689862251e-003</internalNodes>
      <leafValues>
        1.3351088762283325e-001 -3.0151703953742981e-001</leafValues></_>
    <_>
      <internalNodes>
        0 -1 10284 5.1829940639436245e-003</internalNodes>
      <leafValues>
        -8.5912697017192841e-002 4.4374707341194153e-001</leafValues></_>
    <_>
      <internalNodes>
        0 -1 34934 -3.8636863231658936e-002</internalNodes>
      <leafValues>
        -6.5933543443679810e-001 5.8678779751062393e-002</leafValues></_>
    <_>
      <internalNodes>
        0 -1 7648 2.4109529331326485e-002</internalNodes>
      <leafValues>
        7.2214640676975250e-002 -5.4251182079315186e-001</leafValues></_>
    <_>
      <internalNodes>
        0 -1 19631 1.1807642877101898e-003</internalNodes>
      <leafValues>
        -8.4268018603324890e-002 5.0357490777969360e-001</leafValues></_>
    <_>
      <internalNodes>
        0 -1 39859 -5.8335723588243127e-004</internalNodes>
      <leafValues>
        3.4679415822029114e-001 -1.0119841247797012e-001</leafValues></_>
    <_>
      <internalNodes>
        0 -1 34757 -5.7483837008476257e-004</internalNodes>
      <leafValues>
        2.4303656816482544e-001 -1.5403364598751068e-001</leafValues></_>
    <_>
      <internalNodes>
        0 -1 31401 -8.3772260695695877e-003</internalNodes>
      <leafValues>
        -6.7647624015808105e-001 6.5104492008686066e-002</leafValues></_>
    <_>
      <internalNodes>
        0 -1 13388 -4.8680394887924194e-002</internalNodes>
      <leafValues>
        4.2794018983840942e-001 -8.7785944342613220e-002</leafValues></_>
    <_>
      <internalNodes>
        0 -1 38260 4.3597165495157242e-002</internalNodes>
      <leafValues>
        -1.6623151302337646e-001 2.5748217105865479e-001</leafValues></_>
    <_>
      <internalNodes>
        0 -1 40372 -1.0397050064057112e-003</internalNodes>
      <leafValues>
        3.2058864831924438e-001 -1.2642197310924530e-001</leafValues></_>
    <_>
      <internalNodes>
        0 -1 32326 5.9450301341712475e-004</internalNodes>
      <leafValues>
        1.6030950844287872e-001 -2.5859889388084412e-001</leafValues></_>
    <_>
      <internalNodes>
        0 -1 35052 2.0004904363304377e-003</internalNodes>
      <leafValues>
        -1.8588235974311829e-001 2.2206953167915344e-001</leafValues></_>
    <_>
      <internalNodes>
        0 -1 10738 1.0483001824468374e-003</internalNodes>
      <leafValues>
        -9.7770921885967255e-002 4.2478793859481812e-001</leafValues></_>
    <_>
      <internalNodes>
        0 -1 18366 1.6179438680410385e-002</internalNodes>
      <leafValues>
        -1.4621441066265106e-001 2.7409702539443970e-001</leafValues></_>
    <_>
      <internalNodes>
        0 -1 7754 -1.4574851840734482e-002</internalNodes>
      <leafValues>
        -7.1997326612472534e-001 5.5815562605857849e-002</leafValues></_>
    <_>
      <internalNodes>
        0 -1 22393 -8.4305281052365899e-004</internalNodes>
      <leafValues>
        2.8843301534652710e-001 -1.4318260550498962e-001</leafValues></_>
    <_>
      <internalNodes>
        0 -1 36218 3.8410595152527094e-005</internalNodes>
      <leafValues>
        -1.9800679385662079e-001 2.1926820278167725e-001</leafValues></_>
    <_>
      <internalNodes>
        0 -1 31218 9.1502219438552856e-003</internalNodes>
      <leafValues>
        3.5602908581495285e-002 -9.4224804639816284e-001</leafValues></_>
    <_>
      <internalNodes>
        0 -1 35268 3.8572717458009720e-003</internalNodes>
      <leafValues>
        -1.3275848329067230e-001 2.8380703926086426e-001</leafValues></_>
    <_>
      <internalNodes>
        0 -1 7711 -1.3429237529635429e-002</internalNodes>
      <leafValues>
        -4.7626984119415283e-001 8.7766818702220917e-002</leafValues></_></weakClassifiers></stage19>
</opencv_storage>
